[0.582967, -0.469045, -0.310005, -0.800687, 0.667907, -0.530269, 0.186023, -0.973862, -0.425608, -0.268579, -0.537995, -1, 1, -0.551839, -0.0644238, -0.184228, 0.301108, -0.830832, -0.218797]

[0.413627, -0.723112, -0.214118, 0.0572252, 0.666599, -0.758947, 0.297272, 0.112221, -0.571268, -0.255358, -0.63998, -0.572694, 0.870288, -0.777475, -0.13282, -0.329776, 0.285539, -0.739775, -0.163327]

[0.342629, -0.232784, -0.357796, -0.847699, -0.0300832, -0.902965, 0.281267, 0.185389, -0.529506, -0.122581, -0.523061, -0.496854, 0.903702, -0.551109, 0.312691, -0.235275, 0.202226, -0.935884, -0.238111]

[0.680779, -0.255312, -0.858483, 0.12315, -0.0792962, -0.908872, 0.414588, 0.239025, -0.643003, -0.22814, -0.599458, -0.617023, 0.943748, -0.914034, 0.221643, -0.27583, 0.261088, -0.886779, -0.295715]

[0.502877, -0.691984, -0.357796, 0.158094, -0.0053672, -0.690136, 0.363141, -0.922183, -0.648141, -0.15529, -0.602966, -1, 0.862198, -0.696289, -0.0361352, -0.336664, 0.295193, -0.969581, -0.149006]

